[{"lineNumber": 13, "col_offset": 8, "nodeName": "hog", "type": "Any"}, {"lineNumber": 15, "col_offset": 8, "nodeName": "winStride", "type": "Any"}, {"lineNumber": 16, "col_offset": 8, "nodeName": "padding", "type": "Any"}, {"lineNumber": 17, "col_offset": 8, "nodeName": "scale", "type": "float"}, {"lineNumber": 18, "col_offset": 8, "nodeName": "meanShift", "type": "bool"}, {"lineNumber": 30, "col_offset": 8, "nodeName": "labels", "type": "List[str]"}, {"lineNumber": 31, "col_offset": 8, "nodeName": "classes", "type": "List[str]"}, {"lineNumber": 32, "col_offset": 8, "nodeName": "conf", "type": "List[float]"}, {"lineNumber": 33, "col_offset": 8, "nodeName": "rects", "type": "List[Tuple[Any, Any, Any, Any]]"}, {"lineNumber": 35, "col_offset": 12, "nodeName": "i", "type": "Any"}, {"lineNumber": 35, "col_offset": 17, "nodeName": "r", "type": "Any"}, {"lineNumber": 13, "col_offset": 8, "nodeName": "self", "type": "Hog"}, {"lineNumber": 13, "col_offset": 19, "nodeName": "HOGDescriptor", "type": "Any"}, {"lineNumber": 14, "col_offset": 8, "nodeName": "setSVMDetector", "type": "Any"}, {"lineNumber": 15, "col_offset": 8, "nodeName": "self", "type": "Hog"}, {"lineNumber": 15, "col_offset": 25, "nodeName": "config", "type": "Any"}, {"lineNumber": 16, "col_offset": 8, "nodeName": "self", "type": "Hog"}, {"lineNumber": 16, "col_offset": 23, "nodeName": "config", "type": "Any"}, {"lineNumber": 17, "col_offset": 8, "nodeName": "self", "type": "Hog"}, {"lineNumber": 17, "col_offset": 21, "nodeName": "float", "type": "Type[float]"}, {"lineNumber": 18, "col_offset": 8, "nodeName": "self", "type": "Hog"}, {"lineNumber": 19, "col_offset": 8, "nodeName": "debug", "type": "Any"}, {"lineNumber": 25, "col_offset": 8, "nodeName": "r", "type": "Any"}, {"lineNumber": 25, "col_offset": 11, "nodeName": "w", "type": "Any"}, {"lineNumber": 25, "col_offset": 15, "nodeName": "detectMultiScale", "type": "Any"}, {"lineNumber": 25, "col_offset": 41, "nodeName": "image", "type": "Any"}, {"lineNumber": 39, "col_offset": 12, "nodeName": "i", "type": "Any"}, {"lineNumber": 44, "col_offset": 15, "nodeName": "rects", "type": "List[Tuple[Any, Any, Any, Any]]"}, {"lineNumber": 44, "col_offset": 22, "nodeName": "labels", "type": "List[str]"}, {"lineNumber": 44, "col_offset": 30, "nodeName": "conf", "type": "List[float]"}, {"lineNumber": 13, "col_offset": 19, "nodeName": "cv2", "type": "Any"}, {"lineNumber": 14, "col_offset": 8, "nodeName": "hog", "type": "Any"}, {"lineNumber": 14, "col_offset": 32, "nodeName": "HOGDescriptor_getDefaultPeopleDetector", "type": "Any"}, {"lineNumber": 15, "col_offset": 25, "nodeName": "g", "type": "Any"}, {"lineNumber": 16, "col_offset": 23, "nodeName": "g", "type": "Any"}, {"lineNumber": 17, "col_offset": 27, "nodeName": "config", "type": "Any"}, {"lineNumber": 19, "col_offset": 8, "nodeName": "logger", "type": "Any"}, {"lineNumber": 25, "col_offset": 15, "nodeName": "hog", "type": "Any"}, {"lineNumber": 26, "col_offset": 51, "nodeName": "winStride", "type": "Any"}, {"lineNumber": 27, "col_offset": 49, "nodeName": "padding", "type": "Any"}, {"lineNumber": 28, "col_offset": 47, "nodeName": "scale", "type": "float"}, {"lineNumber": 29, "col_offset": 62, "nodeName": "meanShift", "type": "bool"}, {"lineNumber": 36, "col_offset": 12, "nodeName": "append", "type": "Callable"}, {"lineNumber": 37, "col_offset": 12, "nodeName": "append", "type": "Callable"}, {"lineNumber": 38, "col_offset": 12, "nodeName": "append", "type": "Callable"}, {"lineNumber": 39, "col_offset": 16, "nodeName": "tolist", "type": "Any"}, {"lineNumber": 40, "col_offset": 13, "nodeName": "x1", "type": "Any"}, {"lineNumber": 40, "col_offset": 16, "nodeName": "y1", "type": "Any"}, {"lineNumber": 40, "col_offset": 19, "nodeName": "x2", "type": "Any"}, {"lineNumber": 40, "col_offset": 22, "nodeName": "y2", "type": "Any"}, {"lineNumber": 41, "col_offset": 12, "nodeName": "append", "type": "Callable"}, {"lineNumber": 14, "col_offset": 8, "nodeName": "self", "type": "Hog"}, {"lineNumber": 14, "col_offset": 32, "nodeName": "cv2", "type": "Any"}, {"lineNumber": 17, "col_offset": 27, "nodeName": "g", "type": "Any"}, {"lineNumber": 18, "col_offset": 33, "nodeName": "int", "type": "Type[int]"}, {"lineNumber": 19, "col_offset": 8, "nodeName": "g", "type": "Any"}, {"lineNumber": 25, "col_offset": 15, "nodeName": "self", "type": "Hog"}, {"lineNumber": 26, "col_offset": 51, "nodeName": "self", "type": "Hog"}, {"lineNumber": 27, "col_offset": 49, "nodeName": "self", "type": "Hog"}, {"lineNumber": 28, "col_offset": 47, "nodeName": "self", "type": "Hog"}, {"lineNumber": 29, "col_offset": 62, "nodeName": "self", "type": "Hog"}, {"lineNumber": 36, "col_offset": 12, "nodeName": "labels", "type": "List[str]"}, {"lineNumber": 37, "col_offset": 12, "nodeName": "classes", "type": "List[str]"}, {"lineNumber": 38, "col_offset": 12, "nodeName": "conf", "type": "List[float]"}, {"lineNumber": 39, "col_offset": 16, "nodeName": "i", "type": "Any"}, {"lineNumber": 40, "col_offset": 29, "nodeName": "round", "type": "Callable"}, {"lineNumber": 40, "col_offset": 41, "nodeName": "round", "type": "Callable"}, {"lineNumber": 40, "col_offset": 53, "nodeName": "round", "type": "Callable"}, {"lineNumber": 40, "col_offset": 71, "nodeName": "round", "type": "Callable"}, {"lineNumber": 41, "col_offset": 12, "nodeName": "rects", "type": "List[Tuple[Any, Any, Any, Any]]"}, {"lineNumber": 41, "col_offset": 26, "nodeName": "x1", "type": "Any"}, {"lineNumber": 41, "col_offset": 29, "nodeName": "y1", "type": "Any"}, {"lineNumber": 41, "col_offset": 32, "nodeName": "x2", "type": "Any"}, {"lineNumber": 41, "col_offset": 35, "nodeName": "y2", "type": "Any"}, {"lineNumber": 18, "col_offset": 37, "nodeName": "config", "type": "Any"}, {"lineNumber": 40, "col_offset": 35, "nodeName": "i", "type": "Any"}, {"lineNumber": 40, "col_offset": 47, "nodeName": "i", "type": "Any"}, {"lineNumber": 18, "col_offset": 37, "nodeName": "g", "type": "Any"}, {"lineNumber": 40, "col_offset": 59, "nodeName": "i", "type": "Any"}, {"lineNumber": 40, "col_offset": 64, "nodeName": "i", "type": "Any"}, {"lineNumber": 40, "col_offset": 77, "nodeName": "i", "type": "Any"}, {"lineNumber": 40, "col_offset": 82, "nodeName": "i", "type": "Any"}]