[{"lineNumber": 4, "col_offset": 0, "nodeName": "is_inside", "type": "Callable[[Any, Any], Any]"}, {"lineNumber": 9, "col_offset": 0, "nodeName": "draw_person", "type": "Callable[[Any, Any], Any]"}, {"lineNumber": 13, "col_offset": 0, "nodeName": "img", "type": "Any"}, {"lineNumber": 14, "col_offset": 0, "nodeName": "hog", "type": "Any"}, {"lineNumber": 19, "col_offset": 0, "nodeName": "found_filtered", "type": "List[Any]"}, {"lineNumber": 27, "col_offset": 4, "nodeName": "person", "type": "Any"}, {"lineNumber": 27, "col_offset": 14, "nodeName": "found_filtered", "type": "List[Any]"}, {"lineNumber": 5, "col_offset": 21, "nodeName": "o", "type": "Any"}, {"lineNumber": 6, "col_offset": 21, "nodeName": "i", "type": "Any"}, {"lineNumber": 10, "col_offset": 15, "nodeName": "person", "type": "Any"}, {"lineNumber": 13, "col_offset": 6, "nodeName": "imread", "type": "Any"}, {"lineNumber": 14, "col_offset": 6, "nodeName": "HOGDescriptor", "type": "Any"}, {"lineNumber": 15, "col_offset": 0, "nodeName": "setSVMDetector", "type": "Any"}, {"lineNumber": 17, "col_offset": 0, "nodeName": "found", "type": "Any"}, {"lineNumber": 17, "col_offset": 7, "nodeName": "w", "type": "Any"}, {"lineNumber": 17, "col_offset": 11, "nodeName": "detectMultiScale", "type": "Any"}, {"lineNumber": 17, "col_offset": 32, "nodeName": "img", "type": "Any"}, {"lineNumber": 20, "col_offset": 4, "nodeName": "ri", "type": "int"}, {"lineNumber": 20, "col_offset": 8, "nodeName": "r", "type": "Any"}, {"lineNumber": 20, "col_offset": 13, "nodeName": "enumerate", "type": "Type[enumerate[Any]]"}, {"lineNumber": 20, "col_offset": 23, "nodeName": "found", "type": "Any"}, {"lineNumber": 30, "col_offset": 0, "nodeName": "imshow", "type": "Any"}, {"lineNumber": 30, "col_offset": 31, "nodeName": "img", "type": "Any"}, {"lineNumber": 31, "col_offset": 0, "nodeName": "waitKey", "type": "Any"}, {"lineNumber": 32, "col_offset": 0, "nodeName": "destroyAllWindows", "type": "Any"}, {"lineNumber": 5, "col_offset": 4, "nodeName": "ox", "type": "Any"}, {"lineNumber": 5, "col_offset": 8, "nodeName": "oy", "type": "Any"}, {"lineNumber": 5, "col_offset": 12, "nodeName": "ow", "type": "Any"}, {"lineNumber": 5, "col_offset": 16, "nodeName": "oh", "type": "Any"}, {"lineNumber": 6, "col_offset": 4, "nodeName": "ix", "type": "Any"}, {"lineNumber": 6, "col_offset": 8, "nodeName": "iy", "type": "Any"}, {"lineNumber": 6, "col_offset": 12, "nodeName": "iw", "type": "Any"}, {"lineNumber": 6, "col_offset": 16, "nodeName": "ih", "type": "Any"}, {"lineNumber": 10, "col_offset": 2, "nodeName": "x", "type": "Any"}, {"lineNumber": 10, "col_offset": 5, "nodeName": "y", "type": "Any"}, {"lineNumber": 10, "col_offset": 8, "nodeName": "w", "type": "Any"}, {"lineNumber": 10, "col_offset": 11, "nodeName": "h", "type": "Any"}, {"lineNumber": 11, "col_offset": 2, "nodeName": "rectangle", "type": "Any"}, {"lineNumber": 11, "col_offset": 16, "nodeName": "img", "type": "Any"}, {"lineNumber": 13, "col_offset": 6, "nodeName": "cv2", "type": "Any"}, {"lineNumber": 14, "col_offset": 6, "nodeName": "cv2", "type": "Any"}, {"lineNumber": 15, "col_offset": 0, "nodeName": "hog", "type": "Any"}, {"lineNumber": 15, "col_offset": 19, "nodeName": "HOGDescriptor_getDefaultPeopleDetector", "type": "Any"}, {"lineNumber": 17, "col_offset": 11, "nodeName": "hog", "type": "Any"}, {"lineNumber": 21, "col_offset": 8, "nodeName": "qi", "type": "int"}, {"lineNumber": 21, "col_offset": 12, "nodeName": "q", "type": "Any"}, {"lineNumber": 21, "col_offset": 17, "nodeName": "enumerate", "type": "Type[enumerate[Any]]"}, {"lineNumber": 21, "col_offset": 27, "nodeName": "found", "type": "Any"}, {"lineNumber": 28, "col_offset": 2, "nodeName": "draw_person", "type": "Callable[[Any, Any], Any]"}, {"lineNumber": 28, "col_offset": 14, "nodeName": "img", "type": "Any"}, {"lineNumber": 28, "col_offset": 19, "nodeName": "person", "type": "Any"}, {"lineNumber": 30, "col_offset": 0, "nodeName": "cv2", "type": "Any"}, {"lineNumber": 31, "col_offset": 0, "nodeName": "cv2", "type": "Any"}, {"lineNumber": 32, "col_offset": 0, "nodeName": "cv2", "type": "Any"}, {"lineNumber": 7, "col_offset": 11, "nodeName": "ox", "type": "Any"}, {"lineNumber": 7, "col_offset": 16, "nodeName": "ix", "type": "Any"}, {"lineNumber": 7, "col_offset": 23, "nodeName": "oy", "type": "Any"}, {"lineNumber": 7, "col_offset": 28, "nodeName": "iy", "type": "Any"}, {"lineNumber": 11, "col_offset": 2, "nodeName": "cv2", "type": "Any"}, {"lineNumber": 11, "col_offset": 22, "nodeName": "x", "type": "Any"}, {"lineNumber": 11, "col_offset": 25, "nodeName": "y", "type": "Any"}, {"lineNumber": 15, "col_offset": 19, "nodeName": "cv2", "type": "Any"}, {"lineNumber": 25, "col_offset": 8, "nodeName": "append", "type": "Callable"}, {"lineNumber": 25, "col_offset": 30, "nodeName": "r", "type": "Any"}, {"lineNumber": 7, "col_offset": 35, "nodeName": "ox", "type": "Any"}, {"lineNumber": 7, "col_offset": 40, "nodeName": "ow", "type": "Any"}, {"lineNumber": 7, "col_offset": 45, "nodeName": "ix", "type": "Any"}, {"lineNumber": 7, "col_offset": 50, "nodeName": "iw", "type": "Any"}, {"lineNumber": 7, "col_offset": 57, "nodeName": "oy", "type": "Any"}, {"lineNumber": 7, "col_offset": 62, "nodeName": "oh", "type": "Any"}, {"lineNumber": 7, "col_offset": 67, "nodeName": "iy", "type": "Any"}, {"lineNumber": 7, "col_offset": 72, "nodeName": "ih", "type": "Any"}, {"lineNumber": 11, "col_offset": 30, "nodeName": "x", "type": "Any"}, {"lineNumber": 11, "col_offset": 34, "nodeName": "w", "type": "Any"}, {"lineNumber": 11, "col_offset": 37, "nodeName": "y", "type": "Any"}, {"lineNumber": 11, "col_offset": 41, "nodeName": "h", "type": "Any"}, {"lineNumber": 22, "col_offset": 11, "nodeName": "ri", "type": "int"}, {"lineNumber": 22, "col_offset": 17, "nodeName": "qi", "type": "int"}, {"lineNumber": 22, "col_offset": 24, "nodeName": "is_inside", "type": "Callable[[Any, Any], Any]"}, {"lineNumber": 22, "col_offset": 34, "nodeName": "r", "type": "Any"}, {"lineNumber": 22, "col_offset": 37, "nodeName": "q", "type": "Any"}, {"lineNumber": 25, "col_offset": 8, "nodeName": "found_filtered", "type": "List[Any]"}]