[{"lineNumber": 35, "col_offset": 0, "nodeName": "ap", "type": "argparse.ArgumentParser"}, {"lineNumber": 42, "col_offset": 0, "nodeName": "args", "type": "Dict[str, Any]"}, {"lineNumber": 45, "col_offset": 0, "nodeName": "ctx", "type": "ssl.SSLContext"}, {"lineNumber": 51, "col_offset": 0, "nodeName": "winStride", "type": "Any"}, {"lineNumber": 52, "col_offset": 0, "nodeName": "padding", "type": "Any"}, {"lineNumber": 53, "col_offset": 0, "nodeName": "meanShift", "type": "bool"}, {"lineNumber": 56, "col_offset": 0, "nodeName": "hog", "type": "Any"}, {"lineNumber": 60, "col_offset": 0, "nodeName": "image", "type": "Any"}, {"lineNumber": 76, "col_offset": 0, "nodeName": "start", "type": "datetime.datetime"}, {"lineNumber": 78, "col_offset": 0, "nodeName": "labels", "type": "List[str]"}, {"lineNumber": 79, "col_offset": 0, "nodeName": "classes", "type": "List[str]"}, {"lineNumber": 80, "col_offset": 0, "nodeName": "conf", "type": "List[str]"}, {"lineNumber": 83, "col_offset": 4, "nodeName": "i", "type": "Any"}, {"lineNumber": 83, "col_offset": 9, "nodeName": "r", "type": "Any"}, {"lineNumber": 31, "col_offset": 0, "nodeName": "init", "type": "Any"}, {"lineNumber": 35, "col_offset": 5, "nodeName": "ArgumentParser", "type": "Type[argparse.ArgumentParser]"}, {"lineNumber": 36, "col_offset": 0, "nodeName": "add_argument", "type": "Callable[..., argparse.Action]"}, {"lineNumber": 37, "col_offset": 0, "nodeName": "add_argument", "type": "Callable[..., argparse.Action]"}, {"lineNumber": 38, "col_offset": 0, "nodeName": "add_argument", "type": "Callable[..., argparse.Action]"}, {"lineNumber": 39, "col_offset": 0, "nodeName": "add_argument", "type": "Callable[..., argparse.Action]"}, {"lineNumber": 41, "col_offset": 0, "nodeName": "args", "type": "argparse.Namespace"}, {"lineNumber": 41, "col_offset": 5, "nodeName": "u", "type": "List[str]"}, {"lineNumber": 41, "col_offset": 9, "nodeName": "parse_known_args", "type": "Callable[..., Tuple[argparse.Namespace, List[str]]]"}, {"lineNumber": 42, "col_offset": 7, "nodeName": "vars", "type": "Callable[..., Dict[str, Any]]"}, {"lineNumber": 42, "col_offset": 12, "nodeName": "args", "type": "argparse.Namespace"}, {"lineNumber": 45, "col_offset": 0, "nodeName": "g", "type": "Any"}, {"lineNumber": 45, "col_offset": 8, "nodeName": "create_default_context", "type": "Callable[..., ssl.SSLContext]"}, {"lineNumber": 46, "col_offset": 0, "nodeName": "process_config", "type": "Any"}, {"lineNumber": 46, "col_offset": 21, "nodeName": "args", "type": "Dict[str, Any]"}, {"lineNumber": 46, "col_offset": 26, "nodeName": "ctx", "type": "Any"}, {"lineNumber": 48, "col_offset": 0, "nodeName": "filename1", "type": "Any"}, {"lineNumber": 48, "col_offset": 11, "nodeName": "filename2", "type": "Any"}, {"lineNumber": 48, "col_offset": 23, "nodeName": "download_files", "type": "Any"}, {"lineNumber": 48, "col_offset": 44, "nodeName": "args", "type": "Dict[str, Any]"}, {"lineNumber": 51, "col_offset": 12, "nodeName": "config", "type": "Any"}, {"lineNumber": 52, "col_offset": 10, "nodeName": "config", "type": "Any"}, {"lineNumber": 56, "col_offset": 6, "nodeName": "HOGDescriptor", "type": "Any"}, {"lineNumber": 57, "col_offset": 0, "nodeName": "setSVMDetector", "type": "Any"}, {"lineNumber": 59, "col_offset": 0, "nodeName": "info", "type": "Any"}, {"lineNumber": 60, "col_offset": 8, "nodeName": "imread", "type": "Any"}, {"lineNumber": 60, "col_offset": 19, "nodeName": "filename1", "type": "Any"}, {"lineNumber": 63, "col_offset": 0, "nodeName": "h", "type": "Any"}, {"lineNumber": 63, "col_offset": 3, "nodeName": "w", "type": "Any"}, {"lineNumber": 63, "col_offset": 7, "nodeName": "shape", "type": "Any"}, {"lineNumber": 64, "col_offset": 7, "nodeName": "polygons", "type": "Any"}, {"lineNumber": 69, "col_offset": 3, "nodeName": "config", "type": "Any"}, {"lineNumber": 71, "col_offset": 4, "nodeName": "image", "type": "Any"}, {"lineNumber": 76, "col_offset": 8, "nodeName": "now", "type": "Callable"}, {"lineNumber": 77, "col_offset": 0, "nodeName": "r", "type": "Any"}, {"lineNumber": 77, "col_offset": 2, "nodeName": "w", "type": "Any"}, {"lineNumber": 77, "col_offset": 6, "nodeName": "detectMultiScale", "type": "Any"}, {"lineNumber": 77, "col_offset": 27, "nodeName": "image", "type": "Any"}, {"lineNumber": 89, "col_offset": 0, "nodeName": "r", "type": "Any"}, {"lineNumber": 89, "col_offset": 3, "nodeName": "labels", "type": "Any"}, {"lineNumber": 89, "col_offset": 11, "nodeName": "conf", "type": "Any"}, {"lineNumber": 89, "col_offset": 18, "nodeName": "processIntersection", "type": "Any"}, {"lineNumber": 89, "col_offset": 42, "nodeName": "r", "type": "Any"}, {"lineNumber": 89, "col_offset": 45, "nodeName": "labels", "type": "List[str]"}, {"lineNumber": 89, "col_offset": 53, "nodeName": "conf", "type": "List[str]"}, {"lineNumber": 100, "col_offset": 5, "nodeName": "filename2", "type": "Any"}, {"lineNumber": 130, "col_offset": 4, "nodeName": "args", "type": "Dict[str, Any]"}, {"lineNumber": 135, "col_offset": 7, "nodeName": "filename2", "type": "Any"}, {"lineNumber": 31, "col_offset": 0, "nodeName": "log", "type": "Any"}, {"lineNumber": 35, "col_offset": 5, "nodeName": "argparse", "type": "module"}, {"lineNumber": 36, "col_offset": 0, "nodeName": "ap", "type": "argparse.ArgumentParser"}, {"lineNumber": 37, "col_offset": 0, "nodeName": "ap", "type": "argparse.ArgumentParser"}, {"lineNumber": 38, "col_offset": 0, "nodeName": "ap", "type": "argparse.ArgumentParser"}, {"lineNumber": 39, "col_offset": 0, "nodeName": "ap", "type": "argparse.ArgumentParser"}, {"lineNumber": 41, "col_offset": 9, "nodeName": "ap", "type": "argparse.ArgumentParser"}, {"lineNumber": 45, "col_offset": 8, "nodeName": "ssl", "type": "module"}, {"lineNumber": 46, "col_offset": 0, "nodeName": "utils", "type": "Any"}, {"lineNumber": 46, "col_offset": 26, "nodeName": "g", "type": "Any"}, {"lineNumber": 48, "col_offset": 23, "nodeName": "utils", "type": "Any"}, {"lineNumber": 51, "col_offset": 12, "nodeName": "g", "type": "Any"}, {"lineNumber": 52, "col_offset": 10, "nodeName": "g", "type": "Any"}, {"lineNumber": 56, "col_offset": 6, "nodeName": "cv2", "type": "Any"}, {"lineNumber": 57, "col_offset": 0, "nodeName": "hog", "type": "Any"}, {"lineNumber": 57, "col_offset": 19, "nodeName": "HOGDescriptor_getDefaultPeopleDetector", "type": "Any"}, {"lineNumber": 59, "col_offset": 0, "nodeName": "logger", "type": "Any"}, {"lineNumber": 59, "col_offset": 29, "nodeName": "filename1", "type": "Any"}, {"lineNumber": 60, "col_offset": 8, "nodeName": "cv2", "type": "Any"}, {"lineNumber": 63, "col_offset": 7, "nodeName": "image", "type": "Any"}, {"lineNumber": 64, "col_offset": 7, "nodeName": "g", "type": "Any"}, {"lineNumber": 65, "col_offset": 4, "nodeName": "append", "type": "Any"}, {"lineNumber": 66, "col_offset": 4, "nodeName": "debug", "type": "Any"}, {"lineNumber": 69, "col_offset": 3, "nodeName": "g", "type": "Any"}, {"lineNumber": 70, "col_offset": 4, "nodeName": "debug", "type": "Any"}, {"lineNumber": 71, "col_offset": 12, "nodeName": "resize", "type": "Any"}, {"lineNumber": 71, "col_offset": 27, "nodeName": "image", "type": "Any"}, {"lineNumber": 72, "col_offset": 4, "nodeName": "newh", "type": "Any"}, {"lineNumber": 72, "col_offset": 10, "nodeName": "neww", "type": "Any"}, {"lineNumber": 72, "col_offset": 17, "nodeName": "shape", "type": "Any"}, {"lineNumber": 73, "col_offset": 4, "nodeName": "rescale_polygons", "type": "Any"}, {"lineNumber": 76, "col_offset": 8, "nodeName": "datetime", "type": "Type[datetime.datetime]"}, {"lineNumber": 77, "col_offset": 6, "nodeName": "hog", "type": "Any"}, {"lineNumber": 77, "col_offset": 44, "nodeName": "winStride", "type": "Any"}, {"lineNumber": 77, "col_offset": 63, "nodeName": "padding", "type": "Any"}, {"lineNumber": 77, "col_offset": 125, "nodeName": "meanShift", "type": "bool"}, {"lineNumber": 84, "col_offset": 4, "nodeName": "append", "type": "Callable"}, {"lineNumber": 85, "col_offset": 4, "nodeName": "append", "type": "Callable"}, {"lineNumber": 86, "col_offset": 4, "nodeName": "append", "type": "Callable"}, {"lineNumber": 89, "col_offset": 18, "nodeName": "img", "type": "Any"}, {"lineNumber": 92, "col_offset": 3, "nodeName": "config", "type": "Any"}, {"lineNumber": 93, "col_offset": 4, "nodeName": "debug", "type": "Any"}, {"lineNumber": 94, "col_offset": 4, "nodeName": "draw_bbox", "type": "Any"}, {"lineNumber": 94, "col_offset": 18, "nodeName": "image", "type": "Any"}, {"lineNumber": 94, "col_offset": 24, "nodeName": "r", "type": "Any"}, {"lineNumber": 94, "col_offset": 26, "nodeName": "labels", "type": "Any"}, {"lineNumber": 94, "col_offset": 34, "nodeName": "classes", "type": "List[str]"}, {"lineNumber": 94, "col_offset": 43, "nodeName": "conf", "type": "Any"}, {"lineNumber": 95, "col_offset": 4, "nodeName": "imwrite", "type": "Any"}, {"lineNumber": 95, "col_offset": 17, "nodeName": "filename1", "type": "Any"}, {"lineNumber": 95, "col_offset": 27, "nodeName": "image", "type": "Any"}, {"lineNumber": 97, "col_offset": 3, "nodeName": "len", "type": "Callable[[Sized], int]"}, {"lineNumber": 97, "col_offset": 7, "nodeName": "r", "type": "Any"}, {"lineNumber": 98, "col_offset": 4, "nodeName": "print", "type": "Callable[..., None]"}, {"lineNumber": 99, "col_offset": 4, "nodeName": "debug", "type": "Any"}, {"lineNumber": 102, "col_offset": 5, "nodeName": "image", "type": "Any"}, {"lineNumber": 103, "col_offset": 5, "nodeName": "image", "type": "Any"}, {"lineNumber": 107, "col_offset": 5, "nodeName": "labels", "type": "List[str]"}, {"lineNumber": 108, "col_offset": 5, "nodeName": "classes", "type": "List[str]"}, {"lineNumber": 109, "col_offset": 5, "nodeName": "conf", "type": "List[str]"}, {"lineNumber": 112, "col_offset": 9, "nodeName": "i", "type": "Any"}, {"lineNumber": 112, "col_offset": 14, "nodeName": "r", "type": "Any"}, {"lineNumber": 131, "col_offset": 4, "nodeName": "debug", "type": "Any"}, {"lineNumber": 133, "col_offset": 3, "nodeName": "config", "type": "Any"}, {"lineNumber": 134, "col_offset": 4, "nodeName": "remove", "type": "Callable[..., None]"}, {"lineNumber": 134, "col_offset": 14, "nodeName": "filename1", "type": "Any"}, {"lineNumber": 53, "col_offset": 20, "nodeName": "int", "type": "Type[int]"}, {"lineNumber": 57, "col_offset": 19, "nodeName": "cv2", "type": "Any"}, {"lineNumber": 59, "col_offset": 0, "nodeName": "g", "type": "Any"}, {"lineNumber": 65, "col_offset": 4, "nodeName": "polygons", "type": "Any"}, {"lineNumber": 66, "col_offset": 4, "nodeName": "logger", "type": "Any"}, {"lineNumber": 66, "col_offset": 19, "nodeName": "format", "type": "Callable[..., str]"}, {"lineNumber": 66, "col_offset": 88, "nodeName": "polygons", "type": "Any"}, {"lineNumber": 70, "col_offset": 4, "nodeName": "logger", "type": "Any"}, {"lineNumber": 70, "col_offset": 19, "nodeName": "format", "type": "Callable[..., str]"}, {"lineNumber": 71, "col_offset": 12, "nodeName": "imutils", "type": "Any"}, {"lineNumber": 72, "col_offset": 17, "nodeName": "image", "type": "Any"}, {"lineNumber": 73, "col_offset": 4, "nodeName": "utils", "type": "Any"}, {"lineNumber": 73, "col_offset": 27, "nodeName": "neww", "type": "Any"}, {"lineNumber": 73, "col_offset": 34, "nodeName": "w", "type": "Any"}, {"lineNumber": 73, "col_offset": 37, "nodeName": "newh", "type": "Any"}, {"lineNumber": 73, "col_offset": 44, "nodeName": "h", "type": "Any"}, {"lineNumber": 76, "col_offset": 8, "nodeName": "datetime", "type": "module"}, {"lineNumber": 77, "col_offset": 78, "nodeName": "float", "type": "Type[float]"}, {"lineNumber": 84, "col_offset": 4, "nodeName": "labels", "type": "List[str]"}, {"lineNumber": 85, "col_offset": 4, "nodeName": "classes", "type": "List[str]"}, {"lineNumber": 86, "col_offset": 4, "nodeName": "conf", "type": "List[str]"}, {"lineNumber": 92, "col_offset": 3, "nodeName": "g", "type": "Any"}, {"lineNumber": 93, "col_offset": 4, "nodeName": "logger", "type": "Any"}, {"lineNumber": 94, "col_offset": 4, "nodeName": "img", "type": "Any"}, {"lineNumber": 95, "col_offset": 4, "nodeName": "cv2", "type": "Any"}, {"lineNumber": 99, "col_offset": 4, "nodeName": "logger", "type": "Any"}, {"lineNumber": 101, "col_offset": 5, "nodeName": "debug", "type": "Any"}, {"lineNumber": 102, "col_offset": 13, "nodeName": "imread", "type": "Any"}, {"lineNumber": 102, "col_offset": 24, "nodeName": "filename2", "type": "Any"}, {"lineNumber": 103, "col_offset": 13, "nodeName": "resize", "type": "Any"}, {"lineNumber": 103, "col_offset": 28, "nodeName": "image", "type": "Any"}, {"lineNumber": 105, "col_offset": 5, "nodeName": "r", "type": "Any"}, {"lineNumber": 105, "col_offset": 7, "nodeName": "w", "type": "Any"}, {"lineNumber": 105, "col_offset": 11, "nodeName": "detectMultiScale", "type": "Any"}, {"lineNumber": 105, "col_offset": 32, "nodeName": "image", "type": "Any"}, {"lineNumber": 116, "col_offset": 5, "nodeName": "r", "type": "Any"}, {"lineNumber": 116, "col_offset": 8, "nodeName": "labels", "type": "Any"}, {"lineNumber": 116, "col_offset": 16, "nodeName": "conf", "type": "Any"}, {"lineNumber": 116, "col_offset": 23, "nodeName": "processIntersection", "type": "Any"}, {"lineNumber": 116, "col_offset": 47, "nodeName": "r", "type": "Any"}, {"lineNumber": 116, "col_offset": 50, "nodeName": "labels", "type": "List[str]"}, {"lineNumber": 116, "col_offset": 58, "nodeName": "conf", "type": "List[str]"}, {"lineNumber": 131, "col_offset": 4, "nodeName": "logger", "type": "Any"}, {"lineNumber": 131, "col_offset": 19, "nodeName": "format", "type": "Callable[..., str]"}, {"lineNumber": 133, "col_offset": 3, "nodeName": "g", "type": "Any"}, {"lineNumber": 134, "col_offset": 4, "nodeName": "os", "type": "module"}, {"lineNumber": 136, "col_offset": 8, "nodeName": "remove", "type": "Callable[..., None]"}, {"lineNumber": 136, "col_offset": 18, "nodeName": "filename2", "type": "Any"}, {"lineNumber": 53, "col_offset": 24, "nodeName": "config", "type": "Any"}, {"lineNumber": 65, "col_offset": 4, "nodeName": "g", "type": "Any"}, {"lineNumber": 66, "col_offset": 4, "nodeName": "g", "type": "Any"}, {"lineNumber": 66, "col_offset": 88, "nodeName": "g", "type": "Any"}, {"lineNumber": 70, "col_offset": 4, "nodeName": "g", "type": "Any"}, {"lineNumber": 70, "col_offset": 62, "nodeName": "config", "type": "Any"}, {"lineNumber": 71, "col_offset": 40, "nodeName": "min", "type": "Callable"}, {"lineNumber": 77, "col_offset": 84, "nodeName": "config", "type": "Any"}, {"lineNumber": 93, "col_offset": 4, "nodeName": "g", "type": "Any"}, {"lineNumber": 99, "col_offset": 4, "nodeName": "g", "type": "Any"}, {"lineNumber": 101, "col_offset": 5, "nodeName": "logger", "type": "Any"}, {"lineNumber": 101, "col_offset": 70, "nodeName": "filename2", "type": "Any"}, {"lineNumber": 102, "col_offset": 13, "nodeName": "cv2", "type": "Any"}, {"lineNumber": 103, "col_offset": 13, "nodeName": "imutils", "type": "Any"}, {"lineNumber": 105, "col_offset": 11, "nodeName": "hog", "type": "Any"}, {"lineNumber": 105, "col_offset": 49, "nodeName": "winStride", "type": "Any"}, {"lineNumber": 106, "col_offset": 10, "nodeName": "padding", "type": "Any"}, {"lineNumber": 106, "col_offset": 70, "nodeName": "meanShift", "type": "bool"}, {"lineNumber": 113, "col_offset": 8, "nodeName": "append", "type": "Callable"}, {"lineNumber": 114, "col_offset": 8, "nodeName": "append", "type": "Callable"}, {"lineNumber": 115, "col_offset": 8, "nodeName": "append", "type": "Callable"}, {"lineNumber": 116, "col_offset": 23, "nodeName": "img", "type": "Any"}, {"lineNumber": 118, "col_offset": 8, "nodeName": "config", "type": "Any"}, {"lineNumber": 119, "col_offset": 8, "nodeName": "debug", "type": "Any"}, {"lineNumber": 120, "col_offset": 8, "nodeName": "draw_bbox", "type": "Any"}, {"lineNumber": 120, "col_offset": 22, "nodeName": "image", "type": "Any"}, {"lineNumber": 120, "col_offset": 28, "nodeName": "r", "type": "Any"}, {"lineNumber": 120, "col_offset": 30, "nodeName": "labels", "type": "Any"}, {"lineNumber": 120, "col_offset": 38, "nodeName": "classes", "type": "List[str]"}, {"lineNumber": 120, "col_offset": 46, "nodeName": "conf", "type": "Any"}, {"lineNumber": 122, "col_offset": 8, "nodeName": "imwrite", "type": "Any"}, {"lineNumber": 122, "col_offset": 21, "nodeName": "filename1", "type": "Any"}, {"lineNumber": 122, "col_offset": 31, "nodeName": "image", "type": "Any"}, {"lineNumber": 124, "col_offset": 8, "nodeName": "len", "type": "Callable[[Sized], int]"}, {"lineNumber": 124, "col_offset": 12, "nodeName": "r", "type": "Any"}, {"lineNumber": 125, "col_offset": 8, "nodeName": "print", "type": "Callable[..., None]"}, {"lineNumber": 126, "col_offset": 8, "nodeName": "debug", "type": "Any"}, {"lineNumber": 128, "col_offset": 8, "nodeName": "debug", "type": "Any"}, {"lineNumber": 131, "col_offset": 4, "nodeName": "g", "type": "Any"}, {"lineNumber": 131, "col_offset": 49, "nodeName": "total_seconds", "type": "Callable[[], float]"}, {"lineNumber": 136, "col_offset": 8, "nodeName": "os", "type": "module"}, {"lineNumber": 53, "col_offset": 24, "nodeName": "g", "type": "Any"}, {"lineNumber": 65, "col_offset": 64, "nodeName": "w", "type": "Any"}, {"lineNumber": 65, "col_offset": 72, "nodeName": "w", "type": "Any"}, {"lineNumber": 65, "col_offset": 75, "nodeName": "h", "type": "Any"}, {"lineNumber": 65, "col_offset": 83, "nodeName": "h", "type": "Any"}, {"lineNumber": 70, "col_offset": 62, "nodeName": "g", "type": "Any"}, {"lineNumber": 71, "col_offset": 44, "nodeName": "int", "type": "Type[int]"}, {"lineNumber": 71, "col_offset": 69, "nodeName": "shape", "type": "Any"}, {"lineNumber": 77, "col_offset": 84, "nodeName": "g", "type": "Any"}, {"lineNumber": 101, "col_offset": 5, "nodeName": "g", "type": "Any"}, {"lineNumber": 103, "col_offset": 41, "nodeName": "min", "type": "Callable"}, {"lineNumber": 106, "col_offset": 25, "nodeName": "float", "type": "Type[float]"}, {"lineNumber": 113, "col_offset": 8, "nodeName": "labels", "type": "List[str]"}, {"lineNumber": 114, "col_offset": 8, "nodeName": "classes", "type": "List[str]"}, {"lineNumber": 115, "col_offset": 8, "nodeName": "conf", "type": "List[str]"}, {"lineNumber": 118, "col_offset": 8, "nodeName": "g", "type": "Any"}, {"lineNumber": 119, "col_offset": 8, "nodeName": "logger", "type": "Any"}, {"lineNumber": 120, "col_offset": 8, "nodeName": "img", "type": "Any"}, {"lineNumber": 122, "col_offset": 8, "nodeName": "cv2", "type": "Any"}, {"lineNumber": 126, "col_offset": 8, "nodeName": "logger", "type": "Any"}, {"lineNumber": 128, "col_offset": 8, "nodeName": "logger", "type": "Any"}, {"lineNumber": 71, "col_offset": 48, "nodeName": "config", "type": "Any"}, {"lineNumber": 71, "col_offset": 69, "nodeName": "image", "type": "Any"}, {"lineNumber": 101, "col_offset": 49, "nodeName": "filename1", "type": "Any"}, {"lineNumber": 103, "col_offset": 45, "nodeName": "int", "type": "Type[int]"}, {"lineNumber": 103, "col_offset": 68, "nodeName": "shape", "type": "Any"}, {"lineNumber": 106, "col_offset": 31, "nodeName": "config", "type": "Any"}, {"lineNumber": 119, "col_offset": 8, "nodeName": "g", "type": "Any"}, {"lineNumber": 126, "col_offset": 8, "nodeName": "g", "type": "Any"}, {"lineNumber": 128, "col_offset": 8, "nodeName": "g", "type": "Any"}, {"lineNumber": 131, "col_offset": 75, "nodeName": "start", "type": "datetime.datetime"}, {"lineNumber": 71, "col_offset": 48, "nodeName": "g", "type": "Any"}, {"lineNumber": 103, "col_offset": 49, "nodeName": "config", "type": "Any"}, {"lineNumber": 103, "col_offset": 68, "nodeName": "image", "type": "Any"}, {"lineNumber": 131, "col_offset": 49, "nodeName": "now", "type": "Callable"}, {"lineNumber": 131, "col_offset": 49, "nodeName": "datetime", "type": "Type[datetime.datetime]"}, {"lineNumber": 131, "col_offset": 49, "nodeName": "datetime", "type": "module"}]