[{"lineNumber": 26, "col_offset": 0, "nodeName": "ap", "type": "argparse.ArgumentParser"}, {"lineNumber": 42, "col_offset": 0, "nodeName": "args", "type": "Dict[str, Any]"}, {"lineNumber": 46, "col_offset": 0, "nodeName": "winStride", "type": "Any"}, {"lineNumber": 47, "col_offset": 0, "nodeName": "padding", "type": "Any"}, {"lineNumber": 48, "col_offset": 0, "nodeName": "meanShift", "type": "bool"}, {"lineNumber": 51, "col_offset": 0, "nodeName": "hog", "type": "Any"}, {"lineNumber": 54, "col_offset": 0, "nodeName": "filename1", "type": "Any"}, {"lineNumber": 55, "col_offset": 0, "nodeName": "filename2", "type": "str"}, {"lineNumber": 63, "col_offset": 0, "nodeName": "image", "type": "Any"}, {"lineNumber": 64, "col_offset": 0, "nodeName": "image", "type": "Any"}, {"lineNumber": 66, "col_offset": 0, "nodeName": "start", "type": "datetime.datetime"}, {"lineNumber": 26, "col_offset": 5, "nodeName": "ArgumentParser", "type": "Type[argparse.ArgumentParser]"}, {"lineNumber": 27, "col_offset": 0, "nodeName": "add_argument", "type": "Callable[..., argparse.Action]"}, {"lineNumber": 28, "col_offset": 0, "nodeName": "add_argument", "type": "Callable[..., argparse.Action]"}, {"lineNumber": 29, "col_offset": 0, "nodeName": "add_argument", "type": "Callable[..., argparse.Action]"}, {"lineNumber": 30, "col_offset": 0, "nodeName": "add_argument", "type": "Callable[..., argparse.Action]"}, {"lineNumber": 32, "col_offset": 0, "nodeName": "add_argument", "type": "Callable[..., argparse.Action]"}, {"lineNumber": 34, "col_offset": 0, "nodeName": "add_argument", "type": "Callable[..., argparse.Action]"}, {"lineNumber": 36, "col_offset": 0, "nodeName": "add_argument", "type": "Callable[..., argparse.Action]"}, {"lineNumber": 38, "col_offset": 0, "nodeName": "add_argument", "type": "Callable[..., argparse.Action]"}, {"lineNumber": 41, "col_offset": 0, "nodeName": "args", "type": "argparse.Namespace"}, {"lineNumber": 41, "col_offset": 5, "nodeName": "u", "type": "List[str]"}, {"lineNumber": 41, "col_offset": 9, "nodeName": "parse_known_args", "type": "Callable[..., Tuple[argparse.Namespace, List[str]]]"}, {"lineNumber": 42, "col_offset": 7, "nodeName": "vars", "type": "Callable[..., Dict[str, Any]]"}, {"lineNumber": 42, "col_offset": 12, "nodeName": "args", "type": "argparse.Namespace"}, {"lineNumber": 46, "col_offset": 12, "nodeName": "eval", "type": "Callable[..., Any]"}, {"lineNumber": 47, "col_offset": 10, "nodeName": "eval", "type": "Callable[..., Any]"}, {"lineNumber": 51, "col_offset": 6, "nodeName": "HOGDescriptor", "type": "Any"}, {"lineNumber": 52, "col_offset": 0, "nodeName": "setSVMDetector", "type": "Any"}, {"lineNumber": 54, "col_offset": 12, "nodeName": "args", "type": "Dict[str, Any]"}, {"lineNumber": 57, "col_offset": 3, "nodeName": "args", "type": "Dict[str, Any]"}, {"lineNumber": 59, "col_offset": 4, "nodeName": "filename1", "type": "Any"}, {"lineNumber": 60, "col_offset": 4, "nodeName": "filename2", "type": "Any"}, {"lineNumber": 62, "col_offset": 0, "nodeName": "print", "type": "Callable[..., None]"}, {"lineNumber": 63, "col_offset": 8, "nodeName": "imread", "type": "Any"}, {"lineNumber": 63, "col_offset": 19, "nodeName": "filename1", "type": "Any"}, {"lineNumber": 64, "col_offset": 8, "nodeName": "resize", "type": "Any"}, {"lineNumber": 64, "col_offset": 23, "nodeName": "image", "type": "Any"}, {"lineNumber": 66, "col_offset": 8, "nodeName": "now", "type": "Callable"}, {"lineNumber": 67, "col_offset": 0, "nodeName": "r", "type": "Any"}, {"lineNumber": 67, "col_offset": 2, "nodeName": "w", "type": "Any"}, {"lineNumber": 67, "col_offset": 6, "nodeName": "detectMultiScale", "type": "Any"}, {"lineNumber": 67, "col_offset": 27, "nodeName": "image", "type": "Any"}, {"lineNumber": 72, "col_offset": 5, "nodeName": "filename2", "type": "Any"}, {"lineNumber": 85, "col_offset": 4, "nodeName": "args", "type": "Dict[str, Any]"}, {"lineNumber": 88, "col_offset": 4, "nodeName": "args", "type": "Dict[str, Any]"}, {"lineNumber": 90, "col_offset": 7, "nodeName": "filename2", "type": "Any"}, {"lineNumber": 26, "col_offset": 5, "nodeName": "argparse", "type": "module"}, {"lineNumber": 27, "col_offset": 0, "nodeName": "ap", "type": "argparse.ArgumentParser"}, {"lineNumber": 28, "col_offset": 0, "nodeName": "ap", "type": "argparse.ArgumentParser"}, {"lineNumber": 29, "col_offset": 0, "nodeName": "ap", "type": "argparse.ArgumentParser"}, {"lineNumber": 30, "col_offset": 0, "nodeName": "ap", "type": "argparse.ArgumentParser"}, {"lineNumber": 30, "col_offset": 43, "nodeName": "str", "type": "Type[str]"}, {"lineNumber": 32, "col_offset": 0, "nodeName": "ap", "type": "argparse.ArgumentParser"}, {"lineNumber": 32, "col_offset": 35, "nodeName": "str", "type": "Type[str]"}, {"lineNumber": 34, "col_offset": 0, "nodeName": "ap", "type": "argparse.ArgumentParser"}, {"lineNumber": 34, "col_offset": 38, "nodeName": "float", "type": "Type[float]"}, {"lineNumber": 36, "col_offset": 0, "nodeName": "ap", "type": "argparse.ArgumentParser"}, {"lineNumber": 36, "col_offset": 43, "nodeName": "int", "type": "Type[int]"}, {"lineNumber": 38, "col_offset": 0, "nodeName": "ap", "type": "argparse.ArgumentParser"}, {"lineNumber": 41, "col_offset": 9, "nodeName": "ap", "type": "argparse.ArgumentParser"}, {"lineNumber": 46, "col_offset": 17, "nodeName": "args", "type": "Dict[str, Any]"}, {"lineNumber": 47, "col_offset": 15, "nodeName": "args", "type": "Dict[str, Any]"}, {"lineNumber": 51, "col_offset": 6, "nodeName": "cv2", "type": "Any"}, {"lineNumber": 52, "col_offset": 0, "nodeName": "hog", "type": "Any"}, {"lineNumber": 52, "col_offset": 19, "nodeName": "HOGDescriptor_getDefaultPeopleDetector", "type": "Any"}, {"lineNumber": 58, "col_offset": 4, "nodeName": "name", "type": "Any"}, {"lineNumber": 58, "col_offset": 10, "nodeName": "ext", "type": "Any"}, {"lineNumber": 58, "col_offset": 16, "nodeName": "splitext", "type": "Callable"}, {"lineNumber": 58, "col_offset": 33, "nodeName": "filename1", "type": "Any"}, {"lineNumber": 59, "col_offset": 32, "nodeName": "ext", "type": "Any"}, {"lineNumber": 60, "col_offset": 35, "nodeName": "ext", "type": "Any"}, {"lineNumber": 62, "col_offset": 27, "nodeName": "filename1", "type": "Any"}, {"lineNumber": 63, "col_offset": 8, "nodeName": "cv2", "type": "Any"}, {"lineNumber": 64, "col_offset": 8, "nodeName": "imutils", "type": "Any"}, {"lineNumber": 66, "col_offset": 8, "nodeName": "datetime", "type": "Type[datetime.datetime]"}, {"lineNumber": 67, "col_offset": 6, "nodeName": "hog", "type": "Any"}, {"lineNumber": 67, "col_offset": 44, "nodeName": "winStride", "type": "Any"}, {"lineNumber": 68, "col_offset": 9, "nodeName": "padding", "type": "Any"}, {"lineNumber": 68, "col_offset": 60, "nodeName": "meanShift", "type": "bool"}, {"lineNumber": 70, "col_offset": 3, "nodeName": "len", "type": "Callable[[Sized], int]"}, {"lineNumber": 70, "col_offset": 7, "nodeName": "r", "type": "Any"}, {"lineNumber": 71, "col_offset": 4, "nodeName": "print", "type": "Callable[..., None]"}, {"lineNumber": 75, "col_offset": 5, "nodeName": "image", "type": "Any"}, {"lineNumber": 76, "col_offset": 5, "nodeName": "image", "type": "Any"}, {"lineNumber": 86, "col_offset": 4, "nodeName": "print", "type": "Callable[..., None]"}, {"lineNumber": 89, "col_offset": 4, "nodeName": "remove", "type": "Callable[..., None]"}, {"lineNumber": 89, "col_offset": 14, "nodeName": "filename1", "type": "Any"}, {"lineNumber": 48, "col_offset": 20, "nodeName": "args", "type": "Dict[str, Any]"}, {"lineNumber": 52, "col_offset": 19, "nodeName": "cv2", "type": "Any"}, {"lineNumber": 58, "col_offset": 16, "nodeName": "path", "type": "module"}, {"lineNumber": 59, "col_offset": 16, "nodeName": "name", "type": "Any"}, {"lineNumber": 60, "col_offset": 16, "nodeName": "name", "type": "Any"}, {"lineNumber": 64, "col_offset": 36, "nodeName": "min", "type": "Callable"}, {"lineNumber": 66, "col_offset": 8, "nodeName": "datetime", "type": "module"}, {"lineNumber": 68, "col_offset": 24, "nodeName": "args", "type": "Dict[str, Any]"}, {"lineNumber": 73, "col_offset": 5, "nodeName": "print", "type": "Callable[..., None]"}, {"lineNumber": 74, "col_offset": 5, "nodeName": "print", "type": "Callable[..., None]"}, {"lineNumber": 75, "col_offset": 13, "nodeName": "imread", "type": "Any"}, {"lineNumber": 75, "col_offset": 24, "nodeName": "filename2", "type": "Any"}, {"lineNumber": 76, "col_offset": 13, "nodeName": "resize", "type": "Any"}, {"lineNumber": 76, "col_offset": 28, "nodeName": "image", "type": "Any"}, {"lineNumber": 78, "col_offset": 5, "nodeName": "r", "type": "Any"}, {"lineNumber": 78, "col_offset": 7, "nodeName": "w", "type": "Any"}, {"lineNumber": 78, "col_offset": 11, "nodeName": "detectMultiScale", "type": "Any"}, {"lineNumber": 78, "col_offset": 32, "nodeName": "image", "type": "Any"}, {"lineNumber": 86, "col_offset": 10, "nodeName": "format", "type": "Callable[..., str]"}, {"lineNumber": 89, "col_offset": 4, "nodeName": "os", "type": "module"}, {"lineNumber": 91, "col_offset": 8, "nodeName": "remove", "type": "Callable[..., None]"}, {"lineNumber": 91, "col_offset": 18, "nodeName": "filename2", "type": "Any"}, {"lineNumber": 58, "col_offset": 16, "nodeName": "os", "type": "module"}, {"lineNumber": 64, "col_offset": 45, "nodeName": "shape", "type": "Any"}, {"lineNumber": 73, "col_offset": 69, "nodeName": "filename2", "type": "Any"}, {"lineNumber": 74, "col_offset": 32, "nodeName": "filename2", "type": "Any"}, {"lineNumber": 75, "col_offset": 13, "nodeName": "cv2", "type": "Any"}, {"lineNumber": 76, "col_offset": 13, "nodeName": "imutils", "type": "Any"}, {"lineNumber": 78, "col_offset": 11, "nodeName": "hog", "type": "Any"}, {"lineNumber": 78, "col_offset": 49, "nodeName": "winStride", "type": "Any"}, {"lineNumber": 79, "col_offset": 10, "nodeName": "padding", "type": "Any"}, {"lineNumber": 79, "col_offset": 61, "nodeName": "meanShift", "type": "bool"}, {"lineNumber": 80, "col_offset": 8, "nodeName": "len", "type": "Callable[[Sized], int]"}, {"lineNumber": 80, "col_offset": 12, "nodeName": "r", "type": "Any"}, {"lineNumber": 81, "col_offset": 8, "nodeName": "print", "type": "Callable[..., None]"}, {"lineNumber": 86, "col_offset": 48, "nodeName": "total_seconds", "type": "Callable[[], float]"}, {"lineNumber": 91, "col_offset": 8, "nodeName": "os", "type": "module"}, {"lineNumber": 64, "col_offset": 45, "nodeName": "image", "type": "Any"}, {"lineNumber": 76, "col_offset": 41, "nodeName": "min", "type": "Callable"}, {"lineNumber": 79, "col_offset": 25, "nodeName": "args", "type": "Dict[str, Any]"}, {"lineNumber": 73, "col_offset": 48, "nodeName": "filename1", "type": "Any"}, {"lineNumber": 76, "col_offset": 50, "nodeName": "shape", "type": "Any"}, {"lineNumber": 86, "col_offset": 74, "nodeName": "start", "type": "datetime.datetime"}, {"lineNumber": 76, "col_offset": 50, "nodeName": "image", "type": "Any"}, {"lineNumber": 86, "col_offset": 48, "nodeName": "now", "type": "Callable"}, {"lineNumber": 86, "col_offset": 48, "nodeName": "datetime", "type": "Type[datetime.datetime]"}, {"lineNumber": 86, "col_offset": 48, "nodeName": "datetime", "type": "module"}]