[{"lineNumber": 21, "col_offset": 0, "nodeName": "ap", "type": "argparse.ArgumentParser"}, {"lineNumber": 33, "col_offset": 0, "nodeName": "args", "type": "Dict[str, Any]"}, {"lineNumber": 37, "col_offset": 0, "nodeName": "winStride", "type": "Any"}, {"lineNumber": 38, "col_offset": 0, "nodeName": "padding", "type": "Any"}, {"lineNumber": 39, "col_offset": 0, "nodeName": "meanShift", "type": "bool"}, {"lineNumber": 42, "col_offset": 0, "nodeName": "hog", "type": "Any"}, {"lineNumber": 44, "col_offset": 0, "nodeName": "image", "type": "Any"}, {"lineNumber": 45, "col_offset": 0, "nodeName": "image", "type": "Any"}, {"lineNumber": 47, "col_offset": 0, "nodeName": "start", "type": "datetime.datetime"}, {"lineNumber": 21, "col_offset": 5, "nodeName": "ArgumentParser", "type": "Type[argparse.ArgumentParser]"}, {"lineNumber": 22, "col_offset": 0, "nodeName": "add_argument", "type": "Callable[..., argparse.Action]"}, {"lineNumber": 23, "col_offset": 0, "nodeName": "add_argument", "type": "Callable[..., argparse.Action]"}, {"lineNumber": 24, "col_offset": 0, "nodeName": "add_argument", "type": "Callable[..., argparse.Action]"}, {"lineNumber": 26, "col_offset": 0, "nodeName": "add_argument", "type": "Callable[..., argparse.Action]"}, {"lineNumber": 28, "col_offset": 0, "nodeName": "add_argument", "type": "Callable[..., argparse.Action]"}, {"lineNumber": 30, "col_offset": 0, "nodeName": "add_argument", "type": "Callable[..., argparse.Action]"}, {"lineNumber": 33, "col_offset": 7, "nodeName": "vars", "type": "Callable[..., Dict[str, Any]]"}, {"lineNumber": 37, "col_offset": 12, "nodeName": "eval", "type": "Callable[..., Any]"}, {"lineNumber": 38, "col_offset": 10, "nodeName": "eval", "type": "Callable[..., Any]"}, {"lineNumber": 42, "col_offset": 6, "nodeName": "HOGDescriptor", "type": "Any"}, {"lineNumber": 43, "col_offset": 0, "nodeName": "setSVMDetector", "type": "Any"}, {"lineNumber": 44, "col_offset": 8, "nodeName": "imread", "type": "Any"}, {"lineNumber": 45, "col_offset": 8, "nodeName": "resize", "type": "Any"}, {"lineNumber": 45, "col_offset": 23, "nodeName": "image", "type": "Any"}, {"lineNumber": 47, "col_offset": 8, "nodeName": "now", "type": "Callable"}, {"lineNumber": 48, "col_offset": 0, "nodeName": "r", "type": "Any"}, {"lineNumber": 48, "col_offset": 2, "nodeName": "w", "type": "Any"}, {"lineNumber": 48, "col_offset": 6, "nodeName": "detectMultiScale", "type": "Any"}, {"lineNumber": 48, "col_offset": 27, "nodeName": "image", "type": "Any"}, {"lineNumber": 54, "col_offset": 4, "nodeName": "args", "type": "Dict[str, Any]"}, {"lineNumber": 21, "col_offset": 5, "nodeName": "argparse", "type": "module"}, {"lineNumber": 22, "col_offset": 0, "nodeName": "ap", "type": "argparse.ArgumentParser"}, {"lineNumber": 23, "col_offset": 0, "nodeName": "ap", "type": "argparse.ArgumentParser"}, {"lineNumber": 24, "col_offset": 0, "nodeName": "ap", "type": "argparse.ArgumentParser"}, {"lineNumber": 24, "col_offset": 43, "nodeName": "str", "type": "Type[str]"}, {"lineNumber": 26, "col_offset": 0, "nodeName": "ap", "type": "argparse.ArgumentParser"}, {"lineNumber": 26, "col_offset": 40, "nodeName": "str", "type": "Type[str]"}, {"lineNumber": 28, "col_offset": 0, "nodeName": "ap", "type": "argparse.ArgumentParser"}, {"lineNumber": 28, "col_offset": 38, "nodeName": "float", "type": "Type[float]"}, {"lineNumber": 30, "col_offset": 0, "nodeName": "ap", "type": "argparse.ArgumentParser"}, {"lineNumber": 30, "col_offset": 43, "nodeName": "int", "type": "Type[int]"}, {"lineNumber": 33, "col_offset": 12, "nodeName": "parse_args", "type": "Callable"}, {"lineNumber": 37, "col_offset": 17, "nodeName": "args", "type": "Dict[str, Any]"}, {"lineNumber": 38, "col_offset": 15, "nodeName": "args", "type": "Dict[str, Any]"}, {"lineNumber": 42, "col_offset": 6, "nodeName": "cv2", "type": "Any"}, {"lineNumber": 43, "col_offset": 0, "nodeName": "hog", "type": "Any"}, {"lineNumber": 43, "col_offset": 19, "nodeName": "HOGDescriptor_getDefaultPeopleDetector", "type": "Any"}, {"lineNumber": 44, "col_offset": 8, "nodeName": "cv2", "type": "Any"}, {"lineNumber": 44, "col_offset": 19, "nodeName": "args", "type": "Dict[str, Any]"}, {"lineNumber": 45, "col_offset": 8, "nodeName": "imutils", "type": "Any"}, {"lineNumber": 47, "col_offset": 8, "nodeName": "datetime", "type": "Type[datetime.datetime]"}, {"lineNumber": 48, "col_offset": 6, "nodeName": "hog", "type": "Any"}, {"lineNumber": 48, "col_offset": 44, "nodeName": "winStride", "type": "Any"}, {"lineNumber": 49, "col_offset": 9, "nodeName": "padding", "type": "Any"}, {"lineNumber": 49, "col_offset": 60, "nodeName": "meanShift", "type": "bool"}, {"lineNumber": 51, "col_offset": 3, "nodeName": "len", "type": "Callable[[Sized], int]"}, {"lineNumber": 51, "col_offset": 7, "nodeName": "r", "type": "Any"}, {"lineNumber": 52, "col_offset": 4, "nodeName": "print", "type": "Callable[..., None]"}, {"lineNumber": 55, "col_offset": 4, "nodeName": "remove", "type": "Callable[..., None]"}, {"lineNumber": 33, "col_offset": 12, "nodeName": "ap", "type": "argparse.ArgumentParser"}, {"lineNumber": 39, "col_offset": 20, "nodeName": "args", "type": "Dict[str, Any]"}, {"lineNumber": 43, "col_offset": 19, "nodeName": "cv2", "type": "Any"}, {"lineNumber": 45, "col_offset": 36, "nodeName": "min", "type": "Callable"}, {"lineNumber": 47, "col_offset": 8, "nodeName": "datetime", "type": "module"}, {"lineNumber": 49, "col_offset": 24, "nodeName": "args", "type": "Dict[str, Any]"}, {"lineNumber": 55, "col_offset": 4, "nodeName": "os", "type": "module"}, {"lineNumber": 55, "col_offset": 14, "nodeName": "args", "type": "Dict[str, Any]"}, {"lineNumber": 45, "col_offset": 45, "nodeName": "shape", "type": "Any"}, {"lineNumber": 45, "col_offset": 45, "nodeName": "image", "type": "Any"}]