[{"lineNumber": 14, "col_offset": 8, "nodeName": "hog", "type": "Any"}, {"lineNumber": 16, "col_offset": 8, "nodeName": "winStride", "type": "Any"}, {"lineNumber": 17, "col_offset": 8, "nodeName": "padding", "type": "Any"}, {"lineNumber": 18, "col_offset": 8, "nodeName": "scale", "type": "float"}, {"lineNumber": 19, "col_offset": 8, "nodeName": "meanShift", "type": "bool"}, {"lineNumber": 27, "col_offset": 8, "nodeName": "labels", "type": "List[str]"}, {"lineNumber": 28, "col_offset": 8, "nodeName": "classes", "type": "List[str]"}, {"lineNumber": 29, "col_offset": 8, "nodeName": "conf", "type": "List[str]"}, {"lineNumber": 31, "col_offset": 12, "nodeName": "i", "type": "Any"}, {"lineNumber": 31, "col_offset": 17, "nodeName": "r", "type": "Any"}, {"lineNumber": 14, "col_offset": 8, "nodeName": "self", "type": "Hog"}, {"lineNumber": 14, "col_offset": 19, "nodeName": "HOGDescriptor", "type": "Any"}, {"lineNumber": 15, "col_offset": 8, "nodeName": "setSVMDetector", "type": "Any"}, {"lineNumber": 16, "col_offset": 8, "nodeName": "self", "type": "Hog"}, {"lineNumber": 16, "col_offset": 25, "nodeName": "config", "type": "Any"}, {"lineNumber": 17, "col_offset": 8, "nodeName": "self", "type": "Hog"}, {"lineNumber": 17, "col_offset": 23, "nodeName": "config", "type": "Any"}, {"lineNumber": 18, "col_offset": 8, "nodeName": "self", "type": "Hog"}, {"lineNumber": 18, "col_offset": 21, "nodeName": "float", "type": "Type[float]"}, {"lineNumber": 19, "col_offset": 8, "nodeName": "self", "type": "Hog"}, {"lineNumber": 20, "col_offset": 8, "nodeName": "debug", "type": "Any"}, {"lineNumber": 26, "col_offset": 8, "nodeName": "r", "type": "Any"}, {"lineNumber": 26, "col_offset": 11, "nodeName": "w", "type": "Any"}, {"lineNumber": 26, "col_offset": 15, "nodeName": "detectMultiScale", "type": "Any"}, {"lineNumber": 26, "col_offset": 41, "nodeName": "image", "type": "Any"}, {"lineNumber": 36, "col_offset": 15, "nodeName": "r", "type": "Any"}, {"lineNumber": 36, "col_offset": 18, "nodeName": "labels", "type": "List[str]"}, {"lineNumber": 36, "col_offset": 26, "nodeName": "conf", "type": "List[str]"}, {"lineNumber": 14, "col_offset": 19, "nodeName": "cv2", "type": "Any"}, {"lineNumber": 15, "col_offset": 8, "nodeName": "hog", "type": "Any"}, {"lineNumber": 15, "col_offset": 32, "nodeName": "HOGDescriptor_getDefaultPeopleDetector", "type": "Any"}, {"lineNumber": 16, "col_offset": 25, "nodeName": "g", "type": "Any"}, {"lineNumber": 17, "col_offset": 23, "nodeName": "g", "type": "Any"}, {"lineNumber": 18, "col_offset": 27, "nodeName": "config", "type": "Any"}, {"lineNumber": 20, "col_offset": 8, "nodeName": "logger", "type": "Any"}, {"lineNumber": 26, "col_offset": 15, "nodeName": "hog", "type": "Any"}, {"lineNumber": 26, "col_offset": 58, "nodeName": "winStride", "type": "Any"}, {"lineNumber": 26, "col_offset": 82, "nodeName": "padding", "type": "Any"}, {"lineNumber": 26, "col_offset": 102, "nodeName": "scale", "type": "float"}, {"lineNumber": 26, "col_offset": 135, "nodeName": "meanShift", "type": "bool"}, {"lineNumber": 32, "col_offset": 12, "nodeName": "append", "type": "Callable"}, {"lineNumber": 33, "col_offset": 12, "nodeName": "append", "type": "Callable"}, {"lineNumber": 34, "col_offset": 12, "nodeName": "append", "type": "Callable"}, {"lineNumber": 15, "col_offset": 8, "nodeName": "self", "type": "Hog"}, {"lineNumber": 15, "col_offset": 32, "nodeName": "cv2", "type": "Any"}, {"lineNumber": 18, "col_offset": 27, "nodeName": "g", "type": "Any"}, {"lineNumber": 19, "col_offset": 33, "nodeName": "int", "type": "Type[int]"}, {"lineNumber": 20, "col_offset": 8, "nodeName": "g", "type": "Any"}, {"lineNumber": 26, "col_offset": 15, "nodeName": "self", "type": "Hog"}, {"lineNumber": 26, "col_offset": 58, "nodeName": "self", "type": "Hog"}, {"lineNumber": 26, "col_offset": 82, "nodeName": "self", "type": "Hog"}, {"lineNumber": 26, "col_offset": 102, "nodeName": "self", "type": "Hog"}, {"lineNumber": 26, "col_offset": 135, "nodeName": "self", "type": "Hog"}, {"lineNumber": 32, "col_offset": 12, "nodeName": "labels", "type": "List[str]"}, {"lineNumber": 33, "col_offset": 12, "nodeName": "classes", "type": "List[str]"}, {"lineNumber": 34, "col_offset": 12, "nodeName": "conf", "type": "List[str]"}, {"lineNumber": 19, "col_offset": 37, "nodeName": "config", "type": "Any"}, {"lineNumber": 19, "col_offset": 37, "nodeName": "g", "type": "Any"}]