[{"lineNumber": 15, "col_offset": 8, "nodeName": "hog", "type": "Any"}, {"lineNumber": 17, "col_offset": 8, "nodeName": "winStride", "type": "Any"}, {"lineNumber": 18, "col_offset": 8, "nodeName": "padding", "type": "Any"}, {"lineNumber": 19, "col_offset": 8, "nodeName": "scale", "type": "float"}, {"lineNumber": 20, "col_offset": 8, "nodeName": "meanShift", "type": "bool"}, {"lineNumber": 29, "col_offset": 8, "nodeName": "labels", "type": "List[str]"}, {"lineNumber": 30, "col_offset": 8, "nodeName": "classes", "type": "List[str]"}, {"lineNumber": 31, "col_offset": 8, "nodeName": "conf", "type": "List[str]"}, {"lineNumber": 33, "col_offset": 12, "nodeName": "i", "type": "Any"}, {"lineNumber": 33, "col_offset": 17, "nodeName": "r", "type": "Any"}, {"lineNumber": 15, "col_offset": 8, "nodeName": "self", "type": "Hog"}, {"lineNumber": 15, "col_offset": 19, "nodeName": "HOGDescriptor", "type": "Any"}, {"lineNumber": 16, "col_offset": 8, "nodeName": "setSVMDetector", "type": "Any"}, {"lineNumber": 17, "col_offset": 8, "nodeName": "self", "type": "Hog"}, {"lineNumber": 17, "col_offset": 25, "nodeName": "config", "type": "Any"}, {"lineNumber": 18, "col_offset": 8, "nodeName": "self", "type": "Hog"}, {"lineNumber": 18, "col_offset": 23, "nodeName": "config", "type": "Any"}, {"lineNumber": 19, "col_offset": 8, "nodeName": "self", "type": "Hog"}, {"lineNumber": 19, "col_offset": 21, "nodeName": "float", "type": "Type[float]"}, {"lineNumber": 20, "col_offset": 8, "nodeName": "self", "type": "Hog"}, {"lineNumber": 21, "col_offset": 8, "nodeName": "debug", "type": "Any"}, {"lineNumber": 28, "col_offset": 8, "nodeName": "r", "type": "Any"}, {"lineNumber": 28, "col_offset": 10, "nodeName": "w", "type": "Any"}, {"lineNumber": 28, "col_offset": 14, "nodeName": "detectMultiScale", "type": "Any"}, {"lineNumber": 28, "col_offset": 40, "nodeName": "image", "type": "Any"}, {"lineNumber": 38, "col_offset": 15, "nodeName": "r", "type": "Any"}, {"lineNumber": 38, "col_offset": 17, "nodeName": "labels", "type": "List[str]"}, {"lineNumber": 38, "col_offset": 24, "nodeName": "conf", "type": "List[str]"}, {"lineNumber": 15, "col_offset": 19, "nodeName": "cv2", "type": "Any"}, {"lineNumber": 16, "col_offset": 8, "nodeName": "hog", "type": "Any"}, {"lineNumber": 16, "col_offset": 32, "nodeName": "HOGDescriptor_getDefaultPeopleDetector", "type": "Any"}, {"lineNumber": 17, "col_offset": 25, "nodeName": "g", "type": "Any"}, {"lineNumber": 18, "col_offset": 23, "nodeName": "g", "type": "Any"}, {"lineNumber": 19, "col_offset": 27, "nodeName": "config", "type": "Any"}, {"lineNumber": 21, "col_offset": 8, "nodeName": "logger", "type": "Any"}, {"lineNumber": 28, "col_offset": 14, "nodeName": "hog", "type": "Any"}, {"lineNumber": 28, "col_offset": 57, "nodeName": "winStride", "type": "Any"}, {"lineNumber": 28, "col_offset": 80, "nodeName": "padding", "type": "Any"}, {"lineNumber": 28, "col_offset": 100, "nodeName": "scale", "type": "float"}, {"lineNumber": 28, "col_offset": 133, "nodeName": "meanShift", "type": "bool"}, {"lineNumber": 34, "col_offset": 12, "nodeName": "append", "type": "Callable"}, {"lineNumber": 35, "col_offset": 12, "nodeName": "append", "type": "Callable"}, {"lineNumber": 36, "col_offset": 12, "nodeName": "append", "type": "Callable"}, {"lineNumber": 16, "col_offset": 8, "nodeName": "self", "type": "Hog"}, {"lineNumber": 16, "col_offset": 32, "nodeName": "cv2", "type": "Any"}, {"lineNumber": 19, "col_offset": 27, "nodeName": "g", "type": "Any"}, {"lineNumber": 20, "col_offset": 33, "nodeName": "int", "type": "Type[int]"}, {"lineNumber": 21, "col_offset": 8, "nodeName": "g", "type": "Any"}, {"lineNumber": 28, "col_offset": 14, "nodeName": "self", "type": "Hog"}, {"lineNumber": 28, "col_offset": 57, "nodeName": "self", "type": "Hog"}, {"lineNumber": 28, "col_offset": 80, "nodeName": "self", "type": "Hog"}, {"lineNumber": 28, "col_offset": 100, "nodeName": "self", "type": "Hog"}, {"lineNumber": 28, "col_offset": 133, "nodeName": "self", "type": "Hog"}, {"lineNumber": 34, "col_offset": 12, "nodeName": "labels", "type": "List[str]"}, {"lineNumber": 35, "col_offset": 12, "nodeName": "classes", "type": "List[str]"}, {"lineNumber": 36, "col_offset": 12, "nodeName": "conf", "type": "List[str]"}, {"lineNumber": 20, "col_offset": 37, "nodeName": "config", "type": "Any"}, {"lineNumber": 20, "col_offset": 37, "nodeName": "g", "type": "Any"}]