[{"lineNumber": 51, "col_offset": 0, "nodeName": "str2arr", "type": "Callable[[Any], Any]"}, {"lineNumber": 27, "col_offset": 0, "nodeName": "logger", "type": "logging.Logger"}, {"lineNumber": 29, "col_offset": 0, "nodeName": "handler", "type": "logging.handlers.SysLogHandler"}, {"lineNumber": 30, "col_offset": 0, "nodeName": "formatter", "type": "logging.Formatter"}, {"lineNumber": 31, "col_offset": 0, "nodeName": "formatter", "type": "logging.Formatter"}, {"lineNumber": 31, "col_offset": 20, "nodeName": "formatter", "type": "logging.Formatter"}, {"lineNumber": 35, "col_offset": 0, "nodeName": "ap", "type": "argparse.ArgumentParser"}, {"lineNumber": 49, "col_offset": 0, "nodeName": "args", "type": "Dict[str, Any]"}, {"lineNumber": 57, "col_offset": 0, "nodeName": "masks", "type": "numpy.ndarray"}, {"lineNumber": 58, "col_offset": 0, "nodeName": "config", "type": "configparser.ConfigParser"}, {"lineNumber": 75, "col_offset": 0, "nodeName": "winStride", "type": "Any"}, {"lineNumber": 76, "col_offset": 0, "nodeName": "padding", "type": "Any"}, {"lineNumber": 77, "col_offset": 0, "nodeName": "meanShift", "type": "bool"}, {"lineNumber": 80, "col_offset": 0, "nodeName": "hog", "type": "Any"}, {"lineNumber": 83, "col_offset": 0, "nodeName": "filename1", "type": "Any"}, {"lineNumber": 84, "col_offset": 0, "nodeName": "filename2", "type": "str"}, {"lineNumber": 92, "col_offset": 0, "nodeName": "image", "type": "Any"}, {"lineNumber": 94, "col_offset": 3, "nodeName": "size", "type": "int"}, {"lineNumber": 104, "col_offset": 0, "nodeName": "image", "type": "Any"}, {"lineNumber": 106, "col_offset": 0, "nodeName": "start", "type": "datetime.datetime"}, {"lineNumber": 27, "col_offset": 9, "nodeName": "getLogger", "type": "Callable[..., logging.Logger]"}, {"lineNumber": 27, "col_offset": 27, "nodeName": "__name__", "type": "str"}, {"lineNumber": 28, "col_offset": 0, "nodeName": "setLevel", "type": "Callable[[Union[int, str]], None]"}, {"lineNumber": 28, "col_offset": 16, "nodeName": "DEBUG", "type": "int"}, {"lineNumber": 29, "col_offset": 10, "nodeName": "SysLogHandler", "type": "Type[logging.handlers.SysLogHandler]"}, {"lineNumber": 30, "col_offset": 12, "nodeName": "Formatter", "type": "Type[logging.Formatter]"}, {"lineNumber": 31, "col_offset": 0, "nodeName": "handler", "type": "logging.handlers.SysLogHandler"}, {"lineNumber": 32, "col_offset": 0, "nodeName": "addHandler", "type": "Callable[[logging.Handler], None]"}, {"lineNumber": 32, "col_offset": 18, "nodeName": "handler", "type": "logging.handlers.SysLogHandler"}, {"lineNumber": 35, "col_offset": 5, "nodeName": "ArgumentParser", "type": "Type[argparse.ArgumentParser]"}, {"lineNumber": 36, "col_offset": 0, "nodeName": "add_argument", "type": "Callable[..., argparse.Action]"}, {"lineNumber": 37, "col_offset": 0, "nodeName": "add_argument", "type": "Callable[..., argparse.Action]"}, {"lineNumber": 38, "col_offset": 0, "nodeName": "add_argument", "type": "Callable[..., argparse.Action]"}, {"lineNumber": 39, "col_offset": 0, "nodeName": "add_argument", "type": "Callable[..., argparse.Action]"}, {"lineNumber": 40, "col_offset": 0, "nodeName": "add_argument", "type": "Callable[..., argparse.Action]"}, {"lineNumber": 41, "col_offset": 0, "nodeName": "add_argument", "type": "Callable[..., argparse.Action]"}, {"lineNumber": 42, "col_offset": 0, "nodeName": "add_argument", "type": "Callable[..., argparse.Action]"}, {"lineNumber": 43, "col_offset": 0, "nodeName": "add_argument", "type": "Callable[..., argparse.Action]"}, {"lineNumber": 44, "col_offset": 0, "nodeName": "add_argument", "type": "Callable[..., argparse.Action]"}, {"lineNumber": 45, "col_offset": 0, "nodeName": "add_argument", "type": "Callable[..., argparse.Action]"}, {"lineNumber": 48, "col_offset": 0, "nodeName": "args", "type": "argparse.Namespace"}, {"lineNumber": 48, "col_offset": 5, "nodeName": "u", "type": "List[str]"}, {"lineNumber": 48, "col_offset": 9, "nodeName": "parse_known_args", "type": "Callable[..., Tuple[argparse.Namespace, List[str]]]"}, {"lineNumber": 49, "col_offset": 7, "nodeName": "vars", "type": "Callable[..., Dict[str, Any]]"}, {"lineNumber": 49, "col_offset": 12, "nodeName": "args", "type": "argparse.Namespace"}, {"lineNumber": 57, "col_offset": 8, "nodeName": "array", "type": "Callable[..., numpy.ndarray]"}, {"lineNumber": 58, "col_offset": 9, "nodeName": "ConfigParser", "type": "Type[configparser.ConfigParser]"}, {"lineNumber": 59, "col_offset": 3, "nodeName": "read", "type": "Callable[..., List[str]]"}, {"lineNumber": 75, "col_offset": 12, "nodeName": "eval", "type": "Callable[..., Any]"}, {"lineNumber": 76, "col_offset": 10, "nodeName": "eval", "type": "Callable[..., Any]"}, {"lineNumber": 80, "col_offset": 6, "nodeName": "HOGDescriptor", "type": "Any"}, {"lineNumber": 81, "col_offset": 0, "nodeName": "setSVMDetector", "type": "Any"}, {"lineNumber": 83, "col_offset": 12, "nodeName": "args", "type": "Dict[str, Any]"}, {"lineNumber": 86, "col_offset": 3, "nodeName": "args", "type": "Dict[str, Any]"}, {"lineNumber": 88, "col_offset": 4, "nodeName": "filename1", "type": "Any"}, {"lineNumber": 89, "col_offset": 4, "nodeName": "filename2", "type": "Any"}, {"lineNumber": 91, "col_offset": 0, "nodeName": "info", "type": "Callable[..., None]"}, {"lineNumber": 92, "col_offset": 8, "nodeName": "imread", "type": "Any"}, {"lineNumber": 92, "col_offset": 19, "nodeName": "filename1", "type": "Any"}, {"lineNumber": 94, "col_offset": 3, "nodeName": "masks", "type": "numpy.ndarray"}, {"lineNumber": 96, "col_offset": 4, "nodeName": "filter_mask", "type": "Any"}, {"lineNumber": 98, "col_offset": 4, "nodeName": "masked_image", "type": "Any"}, {"lineNumber": 99, "col_offset": 4, "nodeName": "image", "type": "Any"}, {"lineNumber": 99, "col_offset": 12, "nodeName": "masked_image", "type": "Any"}, {"lineNumber": 104, "col_offset": 8, "nodeName": "resize", "type": "Any"}, {"lineNumber": 104, "col_offset": 23, "nodeName": "image", "type": "Any"}, {"lineNumber": 106, "col_offset": 8, "nodeName": "now", "type": "Callable"}, {"lineNumber": 107, "col_offset": 0, "nodeName": "r", "type": "Any"}, {"lineNumber": 107, "col_offset": 2, "nodeName": "w", "type": "Any"}, {"lineNumber": 107, "col_offset": 6, "nodeName": "detectMultiScale", "type": "Any"}, {"lineNumber": 107, "col_offset": 27, "nodeName": "image", "type": "Any"}, {"lineNumber": 112, "col_offset": 5, "nodeName": "filename2", "type": "Any"}, {"lineNumber": 133, "col_offset": 4, "nodeName": "args", "type": "Dict[str, Any]"}, {"lineNumber": 136, "col_offset": 4, "nodeName": "args", "type": "Dict[str, Any]"}, {"lineNumber": 138, "col_offset": 7, "nodeName": "filename2", "type": "Any"}, {"lineNumber": 27, "col_offset": 9, "nodeName": "logging", "type": "module"}, {"lineNumber": 28, "col_offset": 0, "nodeName": "logger", "type": "logging.Logger"}, {"lineNumber": 28, "col_offset": 16, "nodeName": "logging", "type": "module"}, {"lineNumber": 29, "col_offset": 10, "nodeName": "handlers", "type": "module"}, {"lineNumber": 30, "col_offset": 12, "nodeName": "logging", "type": "module"}, {"lineNumber": 32, "col_offset": 0, "nodeName": "logger", "type": "logging.Logger"}, {"lineNumber": 35, "col_offset": 5, "nodeName": "argparse", "type": "module"}, {"lineNumber": 36, "col_offset": 0, "nodeName": "ap", "type": "argparse.ArgumentParser"}, {"lineNumber": 37, "col_offset": 0, "nodeName": "ap", "type": "argparse.ArgumentParser"}, {"lineNumber": 38, "col_offset": 0, "nodeName": "ap", "type": "argparse.ArgumentParser"}, {"lineNumber": 39, "col_offset": 0, "nodeName": "ap", "type": "argparse.ArgumentParser"}, {"lineNumber": 39, "col_offset": 43, "nodeName": "str", "type": "Type[str]"}, {"lineNumber": 40, "col_offset": 0, "nodeName": "ap", "type": "argparse.ArgumentParser"}, {"lineNumber": 40, "col_offset": 35, "nodeName": "str", "type": "Type[str]"}, {"lineNumber": 41, "col_offset": 0, "nodeName": "ap", "type": "argparse.ArgumentParser"}, {"lineNumber": 41, "col_offset": 38, "nodeName": "float", "type": "Type[float]"}, {"lineNumber": 42, "col_offset": 0, "nodeName": "ap", "type": "argparse.ArgumentParser"}, {"lineNumber": 42, "col_offset": 43, "nodeName": "int", "type": "Type[int]"}, {"lineNumber": 43, "col_offset": 0, "nodeName": "ap", "type": "argparse.ArgumentParser"}, {"lineNumber": 44, "col_offset": 0, "nodeName": "ap", "type": "argparse.ArgumentParser"}, {"lineNumber": 45, "col_offset": 0, "nodeName": "ap", "type": "argparse.ArgumentParser"}, {"lineNumber": 48, "col_offset": 9, "nodeName": "ap", "type": "argparse.ArgumentParser"}, {"lineNumber": 57, "col_offset": 8, "nodeName": "np", "type": "module"}, {"lineNumber": 58, "col_offset": 9, "nodeName": "configparser", "type": "module"}, {"lineNumber": 59, "col_offset": 3, "nodeName": "config", "type": "configparser.ConfigParser"}, {"lineNumber": 59, "col_offset": 15, "nodeName": "args", "type": "Dict[str, Any]"}, {"lineNumber": 60, "col_offset": 6, "nodeName": "args", "type": "Dict[str, Any]"}, {"lineNumber": 75, "col_offset": 17, "nodeName": "args", "type": "Dict[str, Any]"}, {"lineNumber": 76, "col_offset": 15, "nodeName": "args", "type": "Dict[str, Any]"}, {"lineNumber": 80, "col_offset": 6, "nodeName": "cv2", "type": "Any"}, {"lineNumber": 81, "col_offset": 0, "nodeName": "hog", "type": "Any"}, {"lineNumber": 81, "col_offset": 19, "nodeName": "HOGDescriptor_getDefaultPeopleDetector", "type": "Any"}, {"lineNumber": 87, "col_offset": 4, "nodeName": "name", "type": "Any"}, {"lineNumber": 87, "col_offset": 10, "nodeName": "ext", "type": "Any"}, {"lineNumber": 87, "col_offset": 16, "nodeName": "splitext", "type": "Callable"}, {"lineNumber": 87, "col_offset": 33, "nodeName": "filename1", "type": "Any"}, {"lineNumber": 88, "col_offset": 32, "nodeName": "ext", "type": "Any"}, {"lineNumber": 89, "col_offset": 35, "nodeName": "ext", "type": "Any"}, {"lineNumber": 91, "col_offset": 0, "nodeName": "logger", "type": "logging.Logger"}, {"lineNumber": 91, "col_offset": 27, "nodeName": "filename1", "type": "Any"}, {"lineNumber": 92, "col_offset": 8, "nodeName": "cv2", "type": "Any"}, {"lineNumber": 95, "col_offset": 4, "nodeName": "info", "type": "Callable[..., None]"}, {"lineNumber": 96, "col_offset": 18, "nodeName": "zeros", "type": "Any"}, {"lineNumber": 96, "col_offset": 27, "nodeName": "shape", "type": "Any"}, {"lineNumber": 97, "col_offset": 4, "nodeName": "fillPoly", "type": "Any"}, {"lineNumber": 97, "col_offset": 17, "nodeName": "filter_mask", "type": "Any"}, {"lineNumber": 98, "col_offset": 19, "nodeName": "bitwise_and", "type": "Any"}, {"lineNumber": 98, "col_offset": 35, "nodeName": "image", "type": "Any"}, {"lineNumber": 98, "col_offset": 42, "nodeName": "filter_mask", "type": "Any"}, {"lineNumber": 100, "col_offset": 4, "nodeName": "info", "type": "Callable[..., None]"}, {"lineNumber": 101, "col_offset": 4, "nodeName": "imwrite", "type": "Any"}, {"lineNumber": 101, "col_offset": 17, "nodeName": "filename1", "type": "Any"}, {"lineNumber": 101, "col_offset": 27, "nodeName": "image", "type": "Any"}, {"lineNumber": 104, "col_offset": 8, "nodeName": "imutils", "type": "Any"}, {"lineNumber": 106, "col_offset": 8, "nodeName": "datetime", "type": "Type[datetime.datetime]"}, {"lineNumber": 107, "col_offset": 6, "nodeName": "hog", "type": "Any"}, {"lineNumber": 107, "col_offset": 44, "nodeName": "winStride", "type": "Any"}, {"lineNumber": 108, "col_offset": 9, "nodeName": "padding", "type": "Any"}, {"lineNumber": 108, "col_offset": 60, "nodeName": "meanShift", "type": "bool"}, {"lineNumber": 110, "col_offset": 3, "nodeName": "len", "type": "Callable[[Sized], int]"}, {"lineNumber": 110, "col_offset": 7, "nodeName": "r", "type": "Any"}, {"lineNumber": 111, "col_offset": 4, "nodeName": "print", "type": "Callable[..., None]"}, {"lineNumber": 114, "col_offset": 5, "nodeName": "image", "type": "Any"}, {"lineNumber": 115, "col_offset": 8, "nodeName": "size", "type": "int"}, {"lineNumber": 124, "col_offset": 5, "nodeName": "image", "type": "Any"}, {"lineNumber": 134, "col_offset": 4, "nodeName": "debug", "type": "Callable[..., None]"}, {"lineNumber": 137, "col_offset": 4, "nodeName": "remove", "type": "Callable[..., None]"}, {"lineNumber": 137, "col_offset": 14, "nodeName": "filename1", "type": "Any"}, {"lineNumber": 29, "col_offset": 10, "nodeName": "logging", "type": "module"}, {"lineNumber": 52, "col_offset": 13, "nodeName": "map", "type": "Callable"}, {"lineNumber": 52, "col_offset": 17, "nodeName": "int", "type": "Type[int]"}, {"lineNumber": 52, "col_offset": 47, "nodeName": "x", "type": "str"}, {"lineNumber": 62, "col_offset": 12, "nodeName": "itms", "type": "List[Tuple[str, str]]"}, {"lineNumber": 63, "col_offset": 15, "nodeName": "itms", "type": "List[Tuple[str, str]]"}, {"lineNumber": 64, "col_offset": 12, "nodeName": "a", "type": "List[List[Iterator[int]]]"}, {"lineNumber": 65, "col_offset": 23, "nodeName": "itms", "type": "List[Tuple[str, str]]"}, {"lineNumber": 68, "col_offset": 15, "nodeName": "NoSectionError", "type": "Type[configparser.NoSectionError]"}, {"lineNumber": 71, "col_offset": 8, "nodeName": "error", "type": "Callable[..., None]"}, {"lineNumber": 77, "col_offset": 20, "nodeName": "args", "type": "Dict[str, Any]"}, {"lineNumber": 81, "col_offset": 19, "nodeName": "cv2", "type": "Any"}, {"lineNumber": 87, "col_offset": 16, "nodeName": "path", "type": "module"}, {"lineNumber": 88, "col_offset": 16, "nodeName": "name", "type": "Any"}, {"lineNumber": 89, "col_offset": 16, "nodeName": "name", "type": "Any"}, {"lineNumber": 95, "col_offset": 4, "nodeName": "logger", "type": "logging.Logger"}, {"lineNumber": 96, "col_offset": 18, "nodeName": "np", "type": "module"}, {"lineNumber": 96, "col_offset": 27, "nodeName": "image", "type": "Any"}, {"lineNumber": 96, "col_offset": 46, "nodeName": "uint8", "type": "Any"}, {"lineNumber": 97, "col_offset": 4, "nodeName": "cv2", "type": "Any"}, {"lineNumber": 97, "col_offset": 34, "nodeName": "masks", "type": "numpy.ndarray"}, {"lineNumber": 98, "col_offset": 19, "nodeName": "cv2", "type": "Any"}, {"lineNumber": 100, "col_offset": 4, "nodeName": "logger", "type": "logging.Logger"}, {"lineNumber": 100, "col_offset": 46, "nodeName": "filename1", "type": "Any"}, {"lineNumber": 101, "col_offset": 4, "nodeName": "cv2", "type": "Any"}, {"lineNumber": 104, "col_offset": 36, "nodeName": "min", "type": "Callable"}, {"lineNumber": 106, "col_offset": 8, "nodeName": "datetime", "type": "module"}, {"lineNumber": 108, "col_offset": 24, "nodeName": "args", "type": "Dict[str, Any]"}, {"lineNumber": 113, "col_offset": 5, "nodeName": "debug", "type": "Callable[..., None]"}, {"lineNumber": 114, "col_offset": 13, "nodeName": "imread", "type": "Any"}, {"lineNumber": 114, "col_offset": 24, "nodeName": "filename2", "type": "Any"}, {"lineNumber": 115, "col_offset": 8, "nodeName": "masks", "type": "numpy.ndarray"}, {"lineNumber": 117, "col_offset": 12, "nodeName": "filter_mask", "type": "Any"}, {"lineNumber": 119, "col_offset": 12, "nodeName": "masked_image", "type": "Any"}, {"lineNumber": 120, "col_offset": 12, "nodeName": "image", "type": "Any"}, {"lineNumber": 120, "col_offset": 20, "nodeName": "masked_image", "type": "Any"}, {"lineNumber": 124, "col_offset": 13, "nodeName": "resize", "type": "Any"}, {"lineNumber": 124, "col_offset": 28, "nodeName": "image", "type": "Any"}, {"lineNumber": 126, "col_offset": 5, "nodeName": "r", "type": "Any"}, {"lineNumber": 126, "col_offset": 7, "nodeName": "w", "type": "Any"}, {"lineNumber": 126, "col_offset": 11, "nodeName": "detectMultiScale", "type": "Any"}, {"lineNumber": 126, "col_offset": 32, "nodeName": "image", "type": "Any"}, {"lineNumber": 134, "col_offset": 4, "nodeName": "logger", "type": "logging.Logger"}, {"lineNumber": 134, "col_offset": 17, "nodeName": "format", "type": "Callable[..., str]"}, {"lineNumber": 137, "col_offset": 4, "nodeName": "os", "type": "module"}, {"lineNumber": 139, "col_offset": 8, "nodeName": "remove", "type": "Callable[..., None]"}, {"lineNumber": 139, "col_offset": 18, "nodeName": "filename2", "type": "Any"}, {"lineNumber": 52, "col_offset": 21, "nodeName": "split", "type": "Callable[..., List[str]]"}, {"lineNumber": 52, "col_offset": 52, "nodeName": "split", "type": "Callable[..., List[str]]"}, {"lineNumber": 62, "col_offset": 19, "nodeName": "items", "type": "Callable"}, {"lineNumber": 65, "col_offset": 16, "nodeName": "k", "type": "str"}, {"lineNumber": 65, "col_offset": 18, "nodeName": "v", "type": "str"}, {"lineNumber": 67, "col_offset": 16, "nodeName": "masks", "type": "numpy.ndarray"}, {"lineNumber": 68, "col_offset": 15, "nodeName": "configparser", "type": "module"}, {"lineNumber": 71, "col_offset": 8, "nodeName": "logger", "type": "logging.Logger"}, {"lineNumber": 87, "col_offset": 16, "nodeName": "os", "type": "module"}, {"lineNumber": 96, "col_offset": 46, "nodeName": "np", "type": "module"}, {"lineNumber": 104, "col_offset": 45, "nodeName": "shape", "type": "Any"}, {"lineNumber": 113, "col_offset": 5, "nodeName": "logger", "type": "logging.Logger"}, {"lineNumber": 113, "col_offset": 68, "nodeName": "filename2", "type": "Any"}, {"lineNumber": 114, "col_offset": 13, "nodeName": "cv2", "type": "Any"}, {"lineNumber": 116, "col_offset": 12, "nodeName": "info", "type": "Callable[..., None]"}, {"lineNumber": 117, "col_offset": 26, "nodeName": "zeros", "type": "Any"}, {"lineNumber": 117, "col_offset": 35, "nodeName": "shape", "type": "Any"}, {"lineNumber": 118, "col_offset": 12, "nodeName": "fillPoly", "type": "Any"}, {"lineNumber": 118, "col_offset": 25, "nodeName": "filter_mask", "type": "Any"}, {"lineNumber": 119, "col_offset": 27, "nodeName": "bitwise_and", "type": "Any"}, {"lineNumber": 119, "col_offset": 43, "nodeName": "image", "type": "Any"}, {"lineNumber": 119, "col_offset": 50, "nodeName": "filter_mask", "type": "Any"}, {"lineNumber": 121, "col_offset": 12, "nodeName": "info", "type": "Callable[..., None]"}, {"lineNumber": 122, "col_offset": 12, "nodeName": "imwrite", "type": "Any"}, {"lineNumber": 122, "col_offset": 25, "nodeName": "filename2", "type": "Any"}, {"lineNumber": 122, "col_offset": 35, "nodeName": "image", "type": "Any"}, {"lineNumber": 124, "col_offset": 13, "nodeName": "imutils", "type": "Any"}, {"lineNumber": 126, "col_offset": 11, "nodeName": "hog", "type": "Any"}, {"lineNumber": 126, "col_offset": 49, "nodeName": "winStride", "type": "Any"}, {"lineNumber": 127, "col_offset": 10, "nodeName": "padding", "type": "Any"}, {"lineNumber": 127, "col_offset": 61, "nodeName": "meanShift", "type": "bool"}, {"lineNumber": 128, "col_offset": 8, "nodeName": "len", "type": "Callable[[Sized], int]"}, {"lineNumber": 128, "col_offset": 12, "nodeName": "r", "type": "Any"}, {"lineNumber": 129, "col_offset": 8, "nodeName": "print", "type": "Callable[..., None]"}, {"lineNumber": 134, "col_offset": 47, "nodeName": "total_seconds", "type": "Callable[[], float]"}, {"lineNumber": 139, "col_offset": 8, "nodeName": "os", "type": "module"}, {"lineNumber": 52, "col_offset": 52, "nodeName": "str", "type": "str"}, {"lineNumber": 62, "col_offset": 19, "nodeName": "config", "type": "configparser.ConfigParser"}, {"lineNumber": 62, "col_offset": 32, "nodeName": "args", "type": "Dict[str, Any]"}, {"lineNumber": 63, "col_offset": 21, "nodeName": "info", "type": "Callable[..., None]"}, {"lineNumber": 66, "col_offset": 16, "nodeName": "append", "type": "Callable"}, {"lineNumber": 67, "col_offset": 24, "nodeName": "asarray", "type": "Callable[..., numpy.ndarray]"}, {"lineNumber": 67, "col_offset": 35, "nodeName": "a", "type": "List[List[Iterator[int]]]"}, {"lineNumber": 69, "col_offset": 16, "nodeName": "info", "type": "Callable[..., None]"}, {"lineNumber": 104, "col_offset": 45, "nodeName": "image", "type": "Any"}, {"lineNumber": 116, "col_offset": 12, "nodeName": "logger", "type": "logging.Logger"}, {"lineNumber": 117, "col_offset": 26, "nodeName": "np", "type": "module"}, {"lineNumber": 117, "col_offset": 35, "nodeName": "image", "type": "Any"}, {"lineNumber": 117, "col_offset": 54, "nodeName": "uint8", "type": "Any"}, {"lineNumber": 118, "col_offset": 12, "nodeName": "cv2", "type": "Any"}, {"lineNumber": 118, "col_offset": 42, "nodeName": "masks", "type": "numpy.ndarray"}, {"lineNumber": 119, "col_offset": 27, "nodeName": "cv2", "type": "Any"}, {"lineNumber": 121, "col_offset": 12, "nodeName": "logger", "type": "logging.Logger"}, {"lineNumber": 121, "col_offset": 54, "nodeName": "filename1", "type": "Any"}, {"lineNumber": 122, "col_offset": 12, "nodeName": "cv2", "type": "Any"}, {"lineNumber": 124, "col_offset": 41, "nodeName": "min", "type": "Callable"}, {"lineNumber": 127, "col_offset": 25, "nodeName": "args", "type": "Dict[str, Any]"}, {"lineNumber": 52, "col_offset": 21, "nodeName": "strip", "type": "Callable[..., str]"}, {"lineNumber": 63, "col_offset": 21, "nodeName": "logger", "type": "logging.Logger"}, {"lineNumber": 66, "col_offset": 16, "nodeName": "a", "type": "List[List[Iterator[int]]]"}, {"lineNumber": 66, "col_offset": 25, "nodeName": "str2arr", "type": "Callable[[Any], Any]"}, {"lineNumber": 66, "col_offset": 33, "nodeName": "v", "type": "str"}, {"lineNumber": 67, "col_offset": 24, "nodeName": "np", "type": "module"}, {"lineNumber": 69, "col_offset": 16, "nodeName": "logger", "type": "logging.Logger"}, {"lineNumber": 113, "col_offset": 47, "nodeName": "filename1", "type": "Any"}, {"lineNumber": 117, "col_offset": 54, "nodeName": "np", "type": "module"}, {"lineNumber": 124, "col_offset": 50, "nodeName": "shape", "type": "Any"}, {"lineNumber": 134, "col_offset": 73, "nodeName": "start", "type": "datetime.datetime"}, {"lineNumber": 52, "col_offset": 21, "nodeName": "x", "type": "str"}, {"lineNumber": 63, "col_offset": 71, "nodeName": "args", "type": "Dict[str, Any]"}, {"lineNumber": 69, "col_offset": 58, "nodeName": "args", "type": "Dict[str, Any]"}, {"lineNumber": 124, "col_offset": 50, "nodeName": "image", "type": "Any"}, {"lineNumber": 134, "col_offset": 47, "nodeName": "now", "type": "Callable"}, {"lineNumber": 134, "col_offset": 47, "nodeName": "datetime", "type": "Type[datetime.datetime]"}, {"lineNumber": 134, "col_offset": 47, "nodeName": "datetime", "type": "module"}]